<?xml version="1.0"?>
<opencv_storage>
<cascade>
  <stageType>BOOST</stageType>
  <featureType>HAAR</featureType>
  <height>24</height>
  <width>36</width>
  <stageParams>
    <boostType>GAB</boostType>
    <minHitRate>9.9500000476837158e-01</minHitRate>
    <maxFalseAlarm>5.0000000000000000e-01</maxFalseAlarm>
    <weightTrimRate>9.4999998807907104e-01</weightTrimRate>
    <maxDepth>1</maxDepth>
    <maxWeakCount>100</maxWeakCount></stageParams>
  <featureParams>
    <maxCatCount>0</maxCatCount>
    <featSize>1</featSize>
    <mode>BASIC</mode></featureParams>
  <stageNum>4</stageNum>
  <stages>
    <!-- stage 0 -->
    <_>
      <maxWeakCount>2</maxWeakCount>
      <stageThreshold>-3.5351875424385071e-01</stageThreshold>
      <weakClassifiers>
        <_>
          <internalNodes>
            0 -1 0 5.9596228599548340e-01</internalNodes>
          <leafValues>
            -9.8394650220870972e-01 8.8741719722747803e-01</leafValues></_>
        <_>
          <internalNodes>
            0 -1 3 -6.7456372082233429e-02</internalNodes>
          <leafValues>
            6.3042771816253662e-01 -9.7049725055694580e-01</leafValues></_></weakClassifiers></_>
    <!-- stage 1 -->
    <_>
      <maxWeakCount>2</maxWeakCount>
      <stageThreshold>-3.6663931608200073e-01</stageThreshold>
      <weakClassifiers>
        <_>
          <internalNodes>
            0 -1 2 2.9564693570137024e-01</internalNodes>
          <leafValues>
            -9.6051734685897827e-01 6.3414633274078369e-01</leafValues></_>
        <_>
          <internalNodes>
            0 -1 5 3.4999743103981018e-02</internalNodes>
          <leafValues>
            -8.9804530143737793e-01 5.9387803077697754e-01</leafValues></_></weakClassifiers></_>
    <!-- stage 2 -->
    <_>
      <maxWeakCount>2</maxWeakCount>
      <stageThreshold>-5.9083873033523560e-01</stageThreshold>
      <weakClassifiers>
        <_>
          <internalNodes>
            0 -1 7 -1.5359641611576080e-01</internalNodes>
          <leafValues>
            4.3049326539039612e-01 -8.2528591156005859e-01</leafValues></_>
        <_>
          <internalNodes>
            0 -1 8 6.5379909938201308e-04</internalNodes>
          <leafValues>
            -9.9584668874740601e-01 2.3444713652133942e-01</leafValues></_></weakClassifiers></_>
    <!-- stage 3 -->
    <_>
      <maxWeakCount>3</maxWeakCount>
      <stageThreshold>-1.5136353969573975e+00</stageThreshold>
      <weakClassifiers>
        <_>
          <internalNodes>
            0 -1 4 -1.7294248566031456e-02</internalNodes>
          <leafValues>
            2.4137930572032928e-01 -8.7700718641281128e-01</leafValues></_>
        <_>
          <internalNodes>
            0 -1 6 3.3214718103408813e-02</internalNodes>
          <leafValues>
            -9.2679554224014282e-01 2.3233050107955933e-01</leafValues></_>
        <_>
          <internalNodes>
            0 -1 1 1.9952471554279327e-01</internalNodes>
          <leafValues>
            -9.6727222204208374e-01 2.9016727209091187e-01</leafValues></_></weakClassifiers></_></stages>
  <features>
    <_>
      <rects>
        <_>
          0 3 36 18 -1.</_>
        <_>
          12 3 12 18 3.</_></rects>
      <tilted>0</tilted></_>
    <_>
      <rects>
        <_>
          0 4 20 14 -1.</_>
        <_>
          10 4 10 14 2.</_></rects>
      <tilted>0</tilted></_>
    <_>
      <rects>
        <_>
          2 3 33 8 -1.</_>
        <_>
          13 3 11 8 3.</_></rects>
      <tilted>0</tilted></_>
    <_>
      <rects>
        <_>
          13 14 11 10 -1.</_>
        <_>
          13 19 11 5 2.</_></rects>
      <tilted>0</tilted></_>
    <_>
      <rects>
        <_>
          13 20 7 4 -1.</_>
        <_>
          13 22 7 2 2.</_></rects>
      <tilted>0</tilted></_>
    <_>
      <rects>
        <_>
          15 0 9 6 -1.</_>
        <_>
          15 3 9 3 2.</_></rects>
      <tilted>0</tilted></_>
    <_>
      <rects>
        <_>
          18 14 18 10 -1.</_>
        <_>
          18 14 9 5 2.</_>
        <_>
          27 19 9 5 2.</_></rects>
      <tilted>0</tilted></_>
    <_>
      <rects>
        <_>
          24 2 10 19 -1.</_>
        <_>
          29 2 5 19 2.</_></rects>
      <tilted>0</tilted></_>
    <_>
      <rects>
        <_>
          35 5 1 12 -1.</_>
        <_>
          35 11 1 6 2.</_></rects>
      <tilted>0</tilted></_></features></cascade>
</opencv_storage>
